apan 0.13967 0.16606 -0.09543 0.15116 -0.52262 -0.31487 0.68261 -0.07754 0.7041 0.028632 0.096671 0.16183 0.32314 0.54156 -0.60449 -0.20989 0.24672 0.3431 0.10581 0.72177 0.068913 -0.5183 0.11628 0.65052 0.2699 1.358 0.042792 0.012941 0.15452 0.14112 -1.116 0.11645 0.56049 0.18842 -0.47776 -0.21058 -0.25124 -0.027619 -0.50536 0.26788 0.12305 -0.79641 0.28183 -0.15738 -0.26296 -0.035685 0.64295 0.15385 -0.026811 0.74909
sekhukhune -0.26111 -1.1765 -1.1747 0.41029 -0.054764 -0.5237 0.96324 1.1931 0.90229 -0.36209 -0.25937 -0.75833 0.45914 -0.7224 0.055497 -0.31047 0.50174 0.32009 0.77245 1.3071 -0.30358 -0.8983 -0.034147 1.4274 -0.078403 0.28112 -0.38246 0.31952 -0.42143 0.10847 -1.2938 -0.42652 0.61603 0.41446 0.21177 0.42483 -0.56261 0.074514 -0.34812 0.20372 -0.56436 0.20734 -0.55883 -0.25762 -0.59353 -0.095163 0.11924 -0.093644 0.63227 -0.33858
rwigyema -0.5129 -0.76422 0.39266 0.10734 -0.30884 0.63926 -0.24939 0.64195 -0.27078 -0.62065 -0.16857 -0.3263 -0.57725 0.0051505 0.0060285 -0.00034606 0.28147 -0.5231 0.40046 -0.23949 -0.62177 0.14514 0.22834 -0.21975 0.30564 1.5489 0.10768 -0.15927 -0.021449 0.98307 -1.9171 -0.48102 0.28504 -0.54466 0.49264 0.29323 0.12129 0.23113 -0.19831 0.075656 -0.3728 0.10051 -0.8173 -0.70497 0.63196 0.096921 -0.29799 -0.32701 0.12287 0.48457
nadym 0.065693 0.21719 -0.43556 0.010178 -0.41182 -0.1117 0.65039 0.9162 -0.072108 0.53287 0.24256 -0.069856 0.92263 -0.49482 -0.67033 0.57046 0.66008 0.14978 1.0321 0.26156 0.2602 -0.57371 -0.41202 0.33714 0.16061 1.0064 0.67102 0.6983 0.062917 0.52239 -1.1644 0.10495 0.73783 0.01066 -0.30591 -0.22576 -0.56137 0.11257 -0.26381 0.34106 0.20176 -0.18297 -0.27099 -0.21996 -0.69166 -0.17464 -0.33855 0.15191 -0.026317 -0.3469
nogay -0.65135 -0.22085 -0.11269 -0.25147 -0.4544 -0.2423 0.61947 -0.083467 -0.21847 0.091374 0.0032935 -0.088094 1.1985 0.25842 -0.64568 -0.37435 0.032774 -0.14884 -0.2227 0.088606 0.19408 -0.15122 -0.010563 0.62195 0.20655 0.93731 -0.93305 -0.92779 -0.82381 -0.1887 -1.6811 0.52581 0.45926 -0.1543 -0.20986 0.4784 -0.52119 -0.44452 -0.21147 0.2879 0.66776 0.50863 0.04626 0.32783 0.19209 -0.10582 0.60748 -0.59379 0.018447 -0.56131
indep -0.077674 -0.50644 0.53586 0.17967 -0.32006 -0.20615 0.32913 0.44673 0.26263 0.25773 0.21952 -0.0035604 0.25321 0.049886 -0.20397 -0.26772 -0.87262 0.26817 0.61225 0.094375 -0.29928 -0.044322 0.91468 0.20855 -0.44881 1.1611 0.58649 0.31709 0.48242 0.13217 -1.5123 0.10756 0.12196 0.97288 0.015711 -0.58191 -0.21703 0.54974 -0.20616 -0.28858 0.82477 -0.98529 0.42015 0.18209 -0.67564 0.033855 -0.031585 0.23855 -0.57692 0.34785
hitchiti -0.69143 -0.48258 -0.093786 -0.30565 -0.37266 0.2393 0.25933 0.24364 -0.30496 0.11342 -0.24949 0.055563 1.4858 -0.082347 -0.56126 -0.57208 -0.75768 0.33095 1.1555 0.19128 -0.086548 -0.25722 0.39454 0.60137 0.84672 0.98513 -0.24709 0.29164 -0.28873 -0.40769 -1.047 -0.31722 0.57028 0.29462 -0.18956 0.07578 -0.38291 -0.76287 -0.55743 0.17239 0.29914 -0.36313 -0.45908 0.16662 0.056625 -0.14901 0.32115 0.72199 -0.097291 -0.062628
jarrettsville 0.066332 -0.46008 0.61712 -0.25619 -0.66264 0.14308 0.42348 0.58232 0.70884 0.2225 -0.64714 -0.68131 0.26924 -0.11825 -1.1915 -0.011963 -0.30392 0.092492 0.30805 0.93242 0.38935 0.1415 0.026188 0.13723 0.26317 0.63745 0.92146 -0.076278 0.52634 -0.5187 -1.3635 -0.30833 0.089887 0.14924 0.66759 0.091634 0.0062096 0.18606 0.020534 0.41948 -0.15388 -0.80393 0.020911 0.30406 -0.31015 0.29924 0.73397 -0.37427 -0.16893 -0.46856
oxe -0.006099 -1.347 0.74497 -0.5967 -0.070365 -0.053813 0.19166 -0.43011 0.67306 0.37987 0.88496 0.48929 0.039498 -0.055566 -0.39771 -0.26297 -0.28514 0.18776 0.015513 0.59885 -0.74619 0.15412 -0.14331 0.29171 0.48064 1.0446 0.016177 -0.49126 -0.22287 0.89716 -1.7943 -0.10158 0.094809 0.45216 0.050624 0.41518 -0.1482 -0.62495 0.017255 -0.052409 0.32602 0.064022 -0.49783 -0.23737 -0.055675 -0.18903 0.51361 -0.19333 0.78176 -0.48478
trivialis -0.6182 -0.60026 -0.90451 0.19488 -0.90363 -0.15825 1.2242 0.079109 0.39233 -0.17115 0.042054 0.41761 0.58786 -0.19026 -0.024663 -0.24044 1.5374 1.0768 0.96598 -0.26924 -0.40246 -0.51819 0.11154 0.31482 0.4311 1.3202 0.25851 0.2036 -0.60848 0.22364 -0.9702 -1.1173 -0.53543 0.85642 -0.36004 -0.3485 0.66063 -0.38038 0.11024 0.03166 -0.29388 -0.70027 -0.34536 0.018218 -0.056409 -1.2862 0.095721 0.1096 0.50185 1.167
bufe 0.07589 -0.54476 0.2304 -0.49666 -0.51218 -0.074744 0.13355 0.1756 0.27199 0.30879 0.62856 0.09691 -0.23327 0.36696 0.55772 0.10031 0.11617 -0.451 0.83693 -0.026167 0.061102 -0.29399 -0.069063 -0.21453 0.52672 1.1933 0.21142 0.13663 -0.39426 0.82811 -1.8676 0.17375 0.42712 0.28348 -0.80419 -0.15476 0.23839 0.60906 0.32306 0.57652 0.022354 -0.075558 -0.19097 -0.38497 0.9248 -0.64605 0.11105 0.38858 0.24216 0.39793
openvpn 0.21961 0.092446 0.34824 -0.13013 -0.9765 0.054264 0.57581 0.64115 0.10941 0.81727 0.01755 0.11931 0.59017 0.33615 -0.89921 0.36218 0.068484 0.26498 0.95333 -0.20444 0.34615 0.32885 0.11178 0.6838 0.04417 0.79326 0.78616 0.066574 0.16322 -0.10938 -1.0779 0.029788 -0.053654 -0.17025 0.1095 -0.043239 0.19367 0.088371 -0.37445 0.37869 0.75977 -0.32433 -0.19332 0.8754 0.34793 -0.50885 0.090222 0.46738 -0.27667 0.28812
boyson -0.50976 -0.27443 0.30946 -0.15614 0.11959 0.2939 -0.42225 0.50808 -0.65396 0.32459 -0.042569 0.68428 0.6159 -0.23623 -1.1472 0.017016 0.19033 -0.037934 -0.16043 0.20053 -0.21365 0.25942 -0.20819 -0.82127 0.69296 0.72368 0.98098 -0.34839 -0.074727 -0.043015 -1.2445 -0.64576 0.66707 0.35149 0.47754 -0.046627 0.17827 0.099979 -0.23986 0.51778 0.2696 -0.39536 -0.55807 0.82926 0.131 -0.16009 -0.27701 0.21376 -0.31601 -0.18277
6,194 -0.59668 0.16151 1.4073 -0.43987 -0.10821 -0.55919 0.49185 0.090494 0.43441 -0.51759 -0.5384 -1.066 0.77558 0.20818 -0.12405 -0.3675 0.20829 0.21155 0.34948 0.036854 -0.33465 -0.51937 -0.00049135 -0.23087 0.70216 1.3656 1.0751 -0.34796 -0.33956 0.062362 -1.3667 0.018543 0.16734 -0.038301 -0.57832 0.15264 0.29313 0.043985 -0.31915 0.30795 -0.37107 -0.68488 0.35536 0.10698 -0.13432 -0.085784 0.23862 -0.62574 -0.48651 -0.39192
65,600 -0.12295 -0.33893 0.83361 0.049187 -0.19264 -0.21193 0.54102 0.16161 0.024331 0.56258 -0.25447 -0.50471 0.7329 -0.030555 0.070069 -0.14399 -0.563 0.16982 0.52456 -0.63988 0.29452 -0.030747 -0.10414 0.04324 0.26235 1.3444 0.50738 -0.29653 0.058148 -0.23973 -1.2957 0.084134 0.24115 0.23178 0.35602 -0.029819 0.017535 0.16292 -0.77177 -0.13131 0.57174 -0.41197 0.48632 0.37086 -0.43139 0.13251 0.45205 0.22416 -0.71951 -0.21785
yordanka -1.2536 0.11613 0.71511 -0.16392 -0.89767 -0.40721 0.57502 -0.34198 -0.0028214 1.285 -0.14249 0.056589 0.73789 0.20891 0.5314 -0.16918 0.39246 -0.87447 1.0776 0.77276 -0.10371 -0.41193 -0.67921 -0.17835 0.95639 0.85097 0.4954 -0.8868 -0.62828 0.29377 -1.3134 0.16488 0.46452 -0.15533 -0.80024 0.013492 0.20767 -0.32678 -0.74372 -0.46388 -0.076966 -0.15675 0.67314 0.023524 -0.031065 0.54591 0.22033 0.68863 0.38295 -0.56067
dzongs 0.25373 -0.35281 -0.052398 0.13801 -0.74553 -0.60501 0.47294 0.73389 -0.2011 -0.79455 -0.091631 0.12636 0.50625 0.041424 -0.68107 0.27712 0.089074 -0.11332 0.94746 0.14995 -0.3031 -0.64609 0.54255 0.63822 -0.3743 1.8416 -0.41422 -0.23894 0.48724 0.026404 -0.96103 0.2278 0.505 0.026179 0.43947 0.67358 -0.31688 -0.22092 -1.3183 0.33428 -0.24632 -1.0636 0.47864 0.27932 -0.24427 -0.041211 -0.082301 -0.15579 -0.58346 -0.25232
hochland -0.13515 0.39513 -0.34439 -0.2806 -0.61888 -1.1263 0.05708 0.24475 0.39284 0.12882 -0.12509 -0.27955 0.85202 -0.85183 -0.19984 -0.14681 0.068954 0.50851 0.074526 0.96532 -0.36547 -0.70501 -0.72231 0.89154 0.47064 1.4499 -0.43449 0.3686 -0.095924 -0.059587 -1.5271 -0.0091748 0.7092 0.19873 -0.53343 -0.12647 0.69408 -1.1728 -1.0208 0.15573 0.091646 -1.0253 -0.87825 -0.13811 -0.13602 -0.52934 0.021736 -0.10646 0.38485 0.26918
vgo -0.76227 -0.49827 0.80004 0.31725 -0.6287 -0.38939 0.23637 0.24799 -0.0068979 0.46868 0.57821 0.20511 0.30162 0.79169 -0.62155 0.060227 -0.53113 0.38162 -0.023263 0.06283 -0.080034 -0.10938 -0.25042 -0.13713 0.32498 1.0468 0.46788 -0.48935 0.27174 0.30286 -1.0798 -0.076976 -0.077385 0.12479 -0.20757 0.12666 0.028727 -0.16462 -0.34768 -0.22828 0.40902 -0.77092 -0.36418 0.59129 -0.41165 -0.38736 0.53355 0.012323 -0.041682 0.078017
rademakers -0.7756 -1.4607 0.2704 -0.29845 -0.58576 -0.71485 0.61885 -0.00034166 0.082135 1.1304 0.095873 0.48057 0.68945 0.6772 -0.1535 -1.0193 -0.10177 0.40099 0.44215 0.63694 -0.11087 -0.13701 0.11845 -0.62569 -0.57719 1.1718 -0.52896 -0.14171 0.32104 -0.029831 -1.8236 -0.54787 0.73468 0.38298 -0.44716 0.71352 -0.063804 -1.3951 -0.43069 0.14675 -0.6336 -0.1862 0.37839 -0.37 0.45771 -1.0712 -0.66641 0.32366 0.34746 0.27525
delije 0.28399 0.29814 0.2546 0.18668 -0.81367 -0.84612 -0.098654 0.48182 -0.60156 0.3816 0.56475 0.099418 0.99272 0.19852 -0.26878 -0.41713 -0.034378 -0.080828 -0.055555 -0.63883 -1.0793 -1.0062 -0.074989 0.60757 -0.084505 1.0732 -0.33671 0.32466 -0.62834 -0.42872 -1.0913 -0.088414 -0.11862 0.019354 -0.55826 -0.74399 0.15594 -1.1642 -1.0204 -0.12662 0.69156 -0.58589 -0.010926 -0.072219 0.46913 -0.96146 -0.1587 0.16732 -0.081078 -0.17893
kick-boxing -1.3005 -0.47126 -0.6835 0.32628 -0.68449 -0.16894 0.51163 0.70154 0.050381 0.53118 0.49721 -0.34579 0.3961 0.65312 -0.29952 -0.84621 0.16254 0.13177 0.30506 -0.043079 -0.18127 -0.23101 -0.40141 0.47181 -0.26192 0.64622 0.49394 -0.47335 -0.11976 0.30627 -1.1895 0.023232 0.5005 0.021567 -0.44719 0.17133 -0.74306 0.77919 -0.6182 -0.34736 0.3785 -0.21344 0.72108 -0.13605 0.72253 -0.331 0.23154 -0.1118 -0.38037 0.40304
6,675 -0.17925 -0.54983 0.98685 -0.6289 -0.11707 -0.35767 0.9583 0.64478 0.11068 0.27386 0.20128 -0.41445 0.55763 0.13228 0.13971 -0.35569 -0.049371 0.38123 0.10769 -0.12894 0.0063249 0.065702 0.30319 -0.42207 0.69818 1.3463 0.96433 -0.64835 -0.13375 0.10151 -1.2443 0.5547 0.44919 0.64875 0.077285 0.046869 0.29287 0.64062 0.13192 0.13081 -0.080898 -0.39927 0.6819 0.11012 -0.30124 -0.10126 0.37621 -0.15138 -0.63282 -0.091896
3,847 0.0046416 0.00072156 0.084582 -1.0728 -0.18532 -0.42433 0.66603 -0.18633 -0.38508 0.34761 -0.47161 -0.45607 0.68811 0.070095 0.20623 -0.21323 -0.18168 0.036083 0.41698 0.39461 -0.27645 0.02076 -0.0081911 0.002494 0.065256 1.2939 0.13337 -0.20266 -0.021492 0.7064 -1.0448 0.25364 0.43478 0.26688 0.33905 0.49199 0.28072 0.15071 -0.59187 0.24492 -0.0085286 -0.35172 0.34238 1.0656 -0.43741 -0.28058 0.25034 0.51568 -0.28988 -0.42196
selles -0.29628 -0.30687 -0.014919 0.048559 -0.41424 -0.42775 0.88435 0.47656 -0.0041916 0.38836 0.25144 -0.26976 0.38514 0.3043 -0.17361 -0.13521 0.12604 0.06709 0.74581 0.19113 -0.754 -0.41934 0.1122 0.038318 0.19098 0.72057 -0.13184 0.5219 -0.16933 -0.039791 -1.5399 0.061087 0.17985 0.66364 0.076499 -0.13865 -0.21621 0.38151 0.31542 0.68838 -0.25818 0.35868 0.026189 -0.18597 -0.010242 -0.75456 0.4887 0.40025 0.27106 0.38679
sieze 0.40821 -1.1227 0.83992 -0.23845 -0.14491 -0.85424 0.49642 1.1549 0.07318 0.33561 0.16894 -0.67059 0.81094 -0.056754 -0.11559 -0.081206 -0.11293 -0.41523 0.62985 -0.5963 0.29332 -0.24893 -0.40319 0.19555 -0.20347 1.1831 0.12895 -0.59548 0.13864 -0.46476 -1.3948 0.32377 -0.65399 0.095398 -0.34164 0.51341 0.16534 -0.30664 0.25656 0.15833 0.74764 -0.47481 0.088591 0.33439 -0.13638 -0.26373 0.12651 0.058727 -0.20325 -0.89892
postally -0.40417 -1.3995 0.69182 -0.53344 -0.89181 0.16874 -0.17378 0.41271 -0.71881 0.51174 0.87434 0.14373 1.6434 0.36412 -0.59468 0.27431 0.13134 0.95135 0.67202 -0.57212 -0.11642 -0.9083 0.023448 0.66777 0.61644 0.6364 -0.36824 -0.71273 0.73551 0.0062948 -1.0334 -0.53186 -0.53938 -0.81805 0.58525 1.2119 0.65049 1.1671 -1.3865 0.4388 0.81806 -0.44303 -0.18513 1.0093 0.09212 -0.14414 -0.49582 0.38433 -0.12137 -0.18426
polkovnik -1.0557 -0.099495 0.22784 -0.45015 0.35037 -0.64153 0.99256 0.60398 -0.012664 -0.37547 0.22207 0.37129 0.60984 0.2179 -0.67112 -0.26033 0.11467 0.41321 0.21702 0.67256 -0.3837 -1.0774 0.20477 0.62852 0.022027 0.9384 -0.3851 0.26434 0.61749 0.3145 -1.2014 -0.25085 0.38956 0.53235 -0.3308 0.24207 0.36025 -0.66113 -0.24641 -0.15425 0.53399 -0.97038 -0.51496 -0.11644 -0.2795 -0.65705 0.34408 0.53045 0.85637 0.913
nete -0.60196 -0.33815 -0.021003 -0.034834 -0.63318 -0.35267 0.13715 0.80968 -0.085949 -0.12055 0.45947 0.51881 0.61358 0.031335 -0.4814 -0.53052 -0.0052854 0.17144 -0.046514 0.12251 -0.91544 -0.95839 0.23644 0.17387 0.70414 1.3492 -0.1085 0.357 0.21356 -0.59271 -1.3287 0.40501 0.72656 0.61052 -0.64455 -0.044393 -0.55496 -0.86246 0.62514 0.2433 -0.10986 -0.8064 -0.26056 0.069778 -0.125 -0.34929 0.62203 0.11664 0.34093 -0.18358
ravago -0.29222 -0.45285 0.21648 0.12828 0.34094 -0.66057 0.49292 0.21612 0.23391 1.1386 0.55145 0.52224 -0.42129 0.38896 0.08729 -0.40513 0.15146 -0.019309 1.1308 0.11158 -0.5073 0.21288 -0.092087 0.36795 -0.026397 1.2004 0.54728 -0.10611 -0.030231 0.066408 -1.7224 -0.32101 0.63243 0.3482 -0.20718 -0.053019 -0.8365 0.58041 0.06094 0.40369 0.31744 0.1582 0.37542 -0.027445 0.049321 -0.30318 -0.04038 -0.22826 -0.20406 0.23342
usss -0.38371 0.5791 0.43157 0.34875 -1.1757 -0.91826 0.44943 0.56913 0.43024 -0.36071 0.11689 0.51851 0.63659 0.84222 -0.29139 -0.13499 -0.58846 -0.49993 1.0433 0.9397 0.029913 -0.25848 -0.26607 0.97122 -0.25147 0.5759 0.17536 -1.1593 0.35591 -0.061986 -1.0702 0.082385 -0.13444 0.030128 -0.47621 0.58874 0.083879 -0.89362 -0.39155 -0.1137 1.4869 -0.42219 1.1397 -0.12088 0.58434 0.40819 0.55139 0.55384 -0.4958 0.44836
primergy 0.50048 -0.91245 0.2759 0.93088 -0.35715 0.45303 0.53695 0.65405 -0.029762 0.52469 0.16136 0.1581 0.63542 0.41056 -0.76452 0.18113 -0.65978 0.21395 0.79146 -0.36226 0.059254 -0.97598 -0.065688 0.53468 -0.49649 0.67059 -0.072636 0.023576 -0.27326 -0.75166 -1.3435 0.050399 -0.042806 0.34504 -0.28795 -0.95301 -0.51008 -0.36938 -0.14036 -0.69439 0.2655 -0.92781 -0.42046 0.57284 0.095251 0.66658 0.13248 0.76525 -0.5369 0.25153
3080 -0.44153 -0.57823 0.55748 -0.53814 -0.69925 -0.64656 0.38293 0.73925 0.43829 0.52831 -0.33115 -0.72195 1.3322 0.27892 -0.25562 -0.35563 0.18758 -0.36293 0.56135 -0.20098 -0.2692 0.063508 0.00036207 0.60921 0.42995 1.4282 0.19488 0.019389 0.58062 -0.033741 -0.86422 0.073575 0.31594 -0.20778 -0.72955 0.51772 0.47774 -0.23206 0.53205 0.2417 0.59209 0.062746 0.22368 0.37793 -0.1307 0.71752 0.052785 -0.12057 0.02325 0.048685
carmyllie -0.36718 -0.4085 -0.33126 0.23697 -0.1506 0.5706 0.84892 0.40737 0.73672 -0.67179 -0.11114 0.23918 0.092029 -1.3124 -0.88422 0.14109 -0.15738 0.25233 0.31155 0.059716 0.66964 0.014591 -0.39214 -0.21137 1.2012 0.38845 0.15444 0.2025 -0.38274 0.64793 -1.6219 -0.069183 1.066 -0.19689 -0.11856 0.03915 -0.20488 -0.3425 -0.44354 0.7425 0.36672 0.25604 -1.0729 -0.06723 -0.029552 0.054063 -0.032751 -0.15009 0.32474 -0.95408
385.5 0.30659 -0.58555 0.80628 -0.50351 -0.28218 -0.23309 0.38911 -0.15617 0.6869 0.35903 -0.46222 -0.88521 1.0813 -0.79129 0.48072 -0.14125 -0.28054 0.26846 -0.12499 0.51024 -0.19575 0.067213 -0.18303 0.10741 0.37643 1.3091 0.56503 -0.35464 0.038644 0.10289 -1.2918 0.35187 0.051229 1.0234 -0.1944 0.091588 0.69509 -0.88033 0.062165 0.044743 0.48049 -0.1956 -0.23981 0.76157 -0.6568 -0.091904 0.21297 0.077888 -0.39144 -0.37004
jhb -0.39741 0.15901 0.4919 -0.016325 -1.2964 -0.89068 0.61415 -0.83422 0.12668 0.40208 -0.58898 -0.35149 0.11707 0.60645 -0.44134 -0.13506 -0.41246 -0.1736 1.0109 1.2375 -1.2718 0.34947 0.26353 0.53785 -0.33428 0.82418 0.14273 -0.19453 0.052664 0.49817 -1.1434 -0.16311 -0.06137 1.8245 0.022051 -0.084293 -0.128 -0.0056093 -0.12971 0.42692 0.89064 0.29461 0.66589 0.65182 0.50798 -0.15056 0.48286 0.020279 -0.18124 0.59068
bossier-shreveport 0.98447 -0.43221 -0.48109 -0.94984 -0.66512 0.041869 0.82267 1.412 -0.44535 -0.86995 0.10666 -0.20045 0.49702 1.2395 -1.4224 -0.94445 -0.30488 0.47749 -0.47196 0.36105 -0.5105 -1.3043 0.20431 0.0043989 -0.4121 1.3392 -0.23217 0.4851 0.7623 0.561 -1.4627 1.0509 -0.22098 0.41108 -0.92709 0.40739 -0.80757 -0.62286 -1.2624 -0.43426 -0.055873 -1.5722 -0.4561 -0.52784 0.36411 -0.38561 0.62176 0.021709 -0.74249 0.007567
pcps -0.32748 -0.060924 0.49707 0.055289 -0.42492 0.48178 0.79136 0.39942 -0.20151 0.25912 0.19074 0.41613 0.7294 0.1415 -0.64683 -0.021038 0.046913 0.0012098 0.78816 -0.55403 -0.30013 -0.27302 0.34576 -0.055893 -0.094982 1.2716 -0.027515 -0.3181 -0.010824 -0.3386 -1.0655 0.16942 0.63589 -0.56346 0.37778 0.7791 0.081242 0.028368 -0.085075 -0.23332 0.48382 -0.72741 0.44583 0.7738 0.22226 0.2051 -0.11418 0.2748 -0.011503 -0.38797
irada -0.30919 -0.33836 0.22862 0.8278 -0.52825 -0.11282 0.28125 0.36638 0.68116 -0.78549 -0.078932 -0.069637 -0.2681 0.76055 -0.32502 -0.047204 -0.19891 -0.457 1.0822 0.1608 -0.61541 0.1036 0.23971 0.44123 0.079031 0.94514 -0.4814 0.41064 -0.55412 0.39233 -1.4495 0.39228 1.0246 0.67113 -0.73739 0.10481 -0.84063 -0.11874 0.13288 0.02844 0.48645 -0.025197 0.37855 0.27917 0.35202 0.40795 0.09135 1.3065 0.081352 -0.33296
self-verification 0.37972 -0.27338 0.82638 -0.47195 -0.44526 0.59658 0.92464 0.20791 -0.42797 0.83622 -0.1445 0.17022 0.16428 -0.17609 -0.12636 -0.21696 0.42535 0.32378 0.67301 -0.4574 -0.25753 -0.62165 0.11473 0.41391 0.594 1.0444 -0.39801 -0.41636 0.97797 0.21232 -1.827 -0.39183 -0.73603 0.044698 0.27558 -0.45469 -0.4138 -0.36855 -0.24672 0.69656 0.28449 -0.8512 0.076308 1.0445 -0.21906 -0.78211 0.56495 0.67572 0.16415 -0.28715
lunula -0.81717 0.09754 -0.095186 0.19719 0.17314 -0.093498 0.71204 0.55084 0.25434 -0.14792 0.43355 0.046348 0.69148 0.5319 0.048784 0.49184 0.7816 0.10816 0.22829 0.082629 -0.5459 -0.93033 -0.1184 -0.0055152 0.10391 0.60782 -0.30147 0.47491 0.15838 0.16643 -1.3647 -0.72713 0.026175 0.25153 -0.6773 0.023185 -0.19581 -0.074648 -0.01678 -0.48769 0.13411 -0.72754 -0.043723 0.35331 0.12209 -0.62172 0.21964 0.085124 0.1934 -0.25641
ncas -0.21148 0.036532 0.12432 -0.0031938 -0.77312 -0.60095 0.49767 0.052762 0.046469 -0.33611 0.41788 0.025436 0.86147 0.7526 -0.24567 0.14465 0.4885 0.51898 0.37752 0.18756 -0.81097 -0.72546 0.14344 0.46868 -0.17997 1.2828 -0.0055513 0.063482 -0.61889 0.30091 -0.98116 -0.099748 0.1448 -0.079115 -0.46651 0.50036 0.13179 -0.38175 -0.031373 0.046084 -0.00094119 -0.64515 0.3139 0.59885 -0.2404 -0.29169 -0.037317 0.4363 0.12306 -0.23305
lanchang -0.021806 0.11534 -0.093738 0.25849 -1.0144 -0.084361 1.1639 1.2003 -0.20407 -0.52077 -0.67055 0.41749 0.98441 -0.68937 -0.45728 0.39578 0.21442 0.010899 1.0367 0.22932 0.33933 -0.54132 0.41179 0.23383 0.035717 0.78532 0.91574 0.0034211 -0.49427 -0.1174 -1.2081 -0.36107 0.3652 0.61598 0.45722 0.33031 -0.46441 0.098206 -0.62447 -0.19108 0.26332 0.2522 -0.011741 0.024903 -0.40918 -0.58961 0.23109 -0.66234 -0.31318 -0.34961
wataniah -0.20804 -0.043781 0.96049 -0.095621 -1.5294 -0.81816 0.38188 0.18813 -0.30849 -0.14554 0.58491 -0.41993 0.55029 0.63296 -0.89789 -0.080068 -0.78682 -0.25911 1.0707 0.47132 -1.367 -0.83016 -0.84791 0.053385 -0.58888 1.3077 0.021919 -0.23711 -0.38403 0.80057 -1.186 -0.3069 0.0041572 -0.010103 0.14236 0.64542 -0.10479 -0.43131 0.016938 0.13763 0.16877 -0.063598 0.12855 0.077283 -0.38239 -0.16117 0.75789 -0.0030778 -0.46897 -0.4268
2890 -0.44477 0.19386 0.76648 -0.087533 -0.62572 -0.71318 0.4656 0.40381 0.18221 0.23517 -0.15459 -0.3277 0.72114 -0.18272 -0.18506 0.16076 -0.046597 0.069508 0.35305 0.39281 -0.18037 -0.31383 -0.089819 0.30305 0.79336 1.2489 0.63508 -0.41798 0.20326 0.45686 -0.95534 -0.33403 0.26668 0.54934 -0.15515 -0.073523 0.3773 -0.11585 -0.74374 0.1602 0.69819 -0.54895 -0.017646 0.253 -0.11255 0.34892 0.40458 0.24892 -0.73569 -0.012292
t-neck -0.2807 -0.31441 0.31163 -0.76111 -0.096428 0.19149 -1.0079 0.30895 0.52762 0.1097 0.095476 0.83263 -0.61582 0.15436 0.12317 -0.35999 -1.2295 -1.308 1.0822 -0.16807 0.83334 0.57572 0.68504 -0.61799 -1.1662 1.6947 -1.1145 -0.41172 0.64742 -0.47223 -1.5463 0.59305 -0.49875 0.40903 -0.53261 1.1667 -0.68766 -1.595 -0.62778 -1.1497 0.55774 -2.0772 -0.46269 0.20954 0.45507 -0.80915 0.3874 -0.40538 -0.33919 -2.2705
aeri -0.06743 -0.33739 0.27921 -0.12674 -0.77151 -0.61086 0.74122 0.58087 0.45236 0.63704 0.35211 0.21035 0.92779 -0.1557 -0.40259 0.097352 0.53132 0.025955 0.81249 0.27419 -0.34314 -0.39064 0.34674 0.62882 0.10309 1.3173 0.18973 -0.049154 -0.29083 -0.15782 -1.5339 -0.33394 0.57678 0.33309 -0.15717 -0.3471 -0.51761 0.0055883 0.78502 0.20737 0.4112 -0.30718 0.39812 0.55724 -0.017301 -1.1145 0.50717 -0.17197 0.25623 0.50718
woodpiles -0.20006 -0.42669 0.51673 -0.074912 -0.10343 0.028501 0.19784 0.60365 -0.15521 0.55931 -0.095807 -0.1813 0.68665 0.34655 -0.65714 0.37921 0.0015228 -0.33688 0.57333 -0.3886 0.123 -0.2515 -0.47889 0.20387 0.34715 1.014 0.6558 0.041569 0.85221 -0.51558 -1.5149 0.64399 0.40196 0.065788 -0.15997 0.23731 -0.87595 0.27466 -0.24519 -0.10078 0.15654 -0.60476 0.35149 0.69852 0.39891 0.2175 0.57611 -0.34845 -0.2257 -0.78551
mid-fourteenth 0.0082466 -1.0957 -0.8292 -1.2809 -0.19307 -1.1163 -0.31861 0.097325 0.18156 0.26647 -0.090614 0.088389 -0.013406 0.60628 -0.51215 -0.27903 0.5158 -0.84521 -0.037127 0.21742 -0.32875 -1.3355 -1.4733 -0.086532 0.86852 1.0697 -1.0731 -0.33623 0.45572 1.1638 -0.88556 -1.2559 1.296 0.68175 -0.072401 0.21262 -0.3385 1.1626 -0.6365 0.47824 -0.28566 -0.78494 0.31716 0.72729 -0.42561 1.453 0.62461 -0.73521 -0.60915 -1.2345
vahsel 0.092134 0.6465 -0.055984 0.63454 -1.1777 -0.88117 -0.47895 1.1433 0.67781 -0.16759 -0.49482 0.56417 1.0865 -0.33029 -0.97671 0.20297 0.60355 -0.63983 -0.28969 0.32273 -0.74699 -0.46512 0.30747 -0.03733 -0.22534 0.33277 0.9118 0.89685 -0.30852 -0.21343 -1.8127 0.19835 0.63273 0.19186 0.60192 -0.52231 -0.42731 -0.53189 -0.45055 -0.29957 0.12005 0.44348 -0.025101 0.045348 -0.18402 -0.31728 -0.027375 0.29473 -0.23963 -0.12491
cignani -0.021924 -0.55957 0.059635 0.43982 -1.0715 -0.76479 0.88309 1.1458 -1.2178 0.89867 0.25963 -0.092344 -0.5888 0.22656 1.0681 -0.095297 -0.47538 0.73101 0.31005 -0.24332 0.5335 -0.016664 -0.6285 0.081001 -0.0014021 0.74896 -0.33675 -0.51244 0.049287 0.9165 -1.3926 -0.62044 -0.34914 -0.46754 0.64359 1.0026 0.28075 1.4226 0.58401 -0.17267 0.24564 -0.038893 -0.189 0.77523 -0.30807 -0.26727 0.85113 -0.19821 0.083249 -0.15495
riely -1.0323 -0.4538 0.76209 -0.36455 -0.33419 0.019839 -0.21285 -0.16133 0.014343 -0.81304 -1.0403 0.84952 -0.48803 -0.20468 -0.56318 -0.38942 0.9973 -0.3848 0.51531 -1.419 0.54515 -0.038649 -1.0971 -0.25763 1.0272 1.5084 0.82676 -0.90313 -0.10424 1.1766 -1.4578 -0.70962 0.45183 -0.56791 0.37206 0.50539 -0.042562 -0.36304 -0.55436 -0.048124 0.13869 0.1376 -0.24806 -0.43339 0.36127 0.18543 0.23025 -0.16866 0.6751 0.52081
